21 202
19 -0.011651 -0.069887 0.033560 -0.222733 -0.035734 0.239808 0.107445 0.270007 -0.329566 0.104472 -0.051662 0.078813 0.131157 0.190042 0.275742 0.146130 -0.313959 0.247449 0.337135 -0.173857 -0.252652 -0.353627 0.227649 0.205967 -0.065344 0.221069 -0.123402 0.293207 -0.187215 0.299484 0.356061 -0.105584 -0.196471 -0.063223 0.412104 -0.389123 -0.228457 0.167948 -0.233828 -0.007921 -0.258564 0.022930 -0.343109 0.147234 0.057805 -0.116207 -0.030115 -0.401851 0.319411 -0.065717 -0.513582 -0.504211 -0.077885 0.247587 -0.338770 0.215348 0.290991 0.643846 0.083492 -0.083599 -0.275453 0.158908 -0.216855 0.199537 -0.493515 -0.097458 -0.334968 -0.069733 -0.509403 0.572710 0.136275 -0.084261 0.066006 0.151813 0.046017 -0.238765 0.048155 -0.188497 0.208882 0.324606 0.210139 0.267916 0.097521 -0.388750 -0.292329 -0.169291 0.169495 0.453880 -0.424960 0.231724 -0.123027 -0.004404 0.535089 -0.616779 -0.230586 -0.079517 0.445545 -0.007008 -0.389863 0.070826 4.337558 -0.001224 -0.052743 0.052843 -0.231153 -0.035263 0.245882 0.104163 0.288927 -0.339885 0.107707 -0.054338 0.072284 0.142218 0.214510 0.281644 0.142256 -0.316657 0.254863 0.337596 -0.172610 -0.260048 -0.361438 0.235465 0.211900 -0.072921 0.222843 -0.123274 0.289327 -0.169368 0.288136 0.359131 -0.098090 -0.197483 -0.056656 0.408582 -0.387678 -0.227898 0.170164 -0.245524 -0.024324 -0.264662 0.027937 -0.351682 0.148825 0.056606 -0.125851 -0.024921 -0.417003 0.333462 -0.068933 -0.532349 -0.508443 -0.072865 0.251227 -0.346998 0.232082 0.307983 0.666204 0.083358 -0.092838 -0.282555 0.172152 -0.221658 0.223208 -0.505075 -0.100367 -0.341705 -0.074428 -0.519025 0.576586 0.126748 -0.089683 0.060021 0.156804 0.051669 -0.233408 0.051136 -0.190432 0.215154 0.338424 0.209015 0.262395 0.088026 -0.408088 -0.299336 -0.179659 0.173304 0.475424 -0.449884 0.232410 -0.129525 0.003060 0.551309 -0.636404 -0.245011 -0.080672 0.482353 -0.002453 -0.422722 0.096158 4.333191
18 -0.016052 0.236970 0.318679 -0.251255 0.071549 0.495198 -0.179135 0.309752 -0.492914 0.246666 0.125842 0.035040 0.096950 0.089562 0.234991 0.132984 -0.121654 0.437268 0.100135 -0.073298 -0.172273 -0.201371 0.093481 0.077376 -0.063470 0.219312 -0.117537 0.069889 0.022904 0.118690 0.126994 -0.038230 -0.040503 0.117700 0.179622 -0.109373 -0.072609 0.087601 -0.143387 -0.016934 -0.186600 0.097254 -0.155028 -0.052708 0.023539 -0.170003 0.101178 -0.220788 0.171678 -0.121041 -0.399471 -0.172775 0.009305 0.214813 -0.354225 0.198202 0.142542 0.535013 0.190106 -0.135780 -0.145467 0.029716 -0.012536 0.362735 -0.187985 -0.193113 -0.226197 0.105727 -0.148796 0.277492 0.064366 -0.195302 0.017428 0.341017 0.094251 -0.270295 0.055099 -0.075151 0.230190 0.230841 0.083488 0.049645 0.011784 -0.201959 -0.153528 -0.022815 -0.025057 0.390729 -0.470627 0.076715 -0.144982 0.086233 0.229256 -0.227802 -0.055827 -0.026475 0.576317 0.111692 -0.364703 0.405862 4.353852 -0.032967 0.237395 0.316031 -0.256083 0.065586 0.496454 -0.176569 0.294635 -0.508131 0.252661 0.135955 0.048227 0.080456 0.075378 0.216902 0.138100 -0.113470 0.440117 0.104583 -0.070366 -0.167970 -0.201763 0.093408 0.071436 -0.047445 0.228508 -0.109032 0.057080 0.007642 0.128325 0.115463 -0.034043 -0.032442 0.135477 0.182174 -0.110791 -0.066593 0.069395 -0.137569 -0.002667 -0.185955 0.075508 -0.143075 -0.081079 0.020456 -0.148716 0.098046 -0.206823 0.170622 -0.132850 -0.378159 -0.155336 0.013328 0.196735 -0.349445 0.199480 0.160402 0.533792 0.202630 -0.123035 -0.158473 0.024774 -0.017572 0.378797 -0.206761 -0.201629 -0.239290 0.110295 -0.168629 0.291819 0.087384 -0.191270 0.018775 0.354411 0.082222 -0.278044 0.054175 -0.086187 0.232613 0.237798 0.095482 0.064673 0.019474 -0.188873 -0.174769 -0.029500 -0.021931 0.402155 -0.499182 0.087116 -0.157762 0.083994 0.240686 -0.242609 -0.058753 -0.019442 0.606900 0.122064 -0.377163 0.414304 4.491809
17 0.009998 0.155308 0.238258 -0.122221 -0.070955 0.265000 -0.108208 0.205366 -0.331910 0.169616 0.150893 -0.093026 0.054896 0.146731 0.198108 -0.009255 0.037107 0.374522 0.051537 -0.058269 -0.254015 -0.091083 0.045568 0.165837 -0.267933 0.092260 -0.103765 0.218561 0.226932 -0.069883 0.389792 0.018047 -0.116745 -0.018779 0.087991 -0.237615 -0.234501 0.209834 -0.253129 -0.171987 -0.395341 0.163502 -0.222143 0.092173 -0.013765 -0.205807 -0.004044 -0.378841 0.230134 -0.028330 -0.527246 -0.117763 0.074855 0.149937 -0.361783 0.390345 0.271254 0.531908 0.112645 -0.190569 -0.061876 0.082880 -0.019295 0.409424 -0.243689 -0.218426 -0.137626 0.051323 -0.054835 0.038404 -0.004354 -0.154810 -0.080252 0.229120 0.106015 -0.209679 0.099169 -0.003137 0.200174 0.282188 -0.065064 -0.042681 -0.077553 -0.146750 0.030946 -0.002029 -0.059420 0.331876 -0.346141 -0.058447 -0.117684 0.188226 0.152970 -0.123834 -0.119115 0.047344 0.472143 0.137892 -0.169495 0.265259 4.223751 0.030303 0.180943 0.262966 -0.126048 -0.060648 0.279352 -0.124854 0.234368 -0.337417 0.176109 0.148701 -0.109382 0.062838 0.154945 0.216243 -0.021894 0.039470 0.370371 0.042217 -0.059664 -0.247681 -0.075315 0.037382 0.166900 -0.282454 0.069620 -0.110925 0.218021 0.248350 -0.086656 0.387128 0.019501 -0.105719 -0.025454 0.070605 -0.223503 -0.226486 0.221345 -0.252560 -0.185195 -0.392378 0.175834 -0.229521 0.116218 -0.012171 -0.227422 0.002417 -0.392515 0.235364 -0.025484 -0.559460 -0.129958 0.073810 0.165953 -0.378993 0.405145 0.270308 0.572042 0.108842 -0.195624 -0.048789 0.082836 -0.013671 0.434063 -0.242228 -0.226289 -0.130725 0.051391 -0.034370 0.022561 -0.025714 -0.165830 -0.081450 0.224783 0.124800 -0.214861 0.106438 0.010526 0.206218 0.286106 -0.079784 -0.064881 -0.090369 -0.170714 0.063175 0.010376 -0.076657 0.353713 -0.344420 -0.067129 -0.121119 0.211141 0.150711 -0.131922 -0.134650 0.036600 0.510917 0.146671 -0.203010 0.300801 4.161522
16 -0.012135 0.144510 0.254695 0.067099 -0.254761 0.246231 -0.159928 0.138465 -0.322274 0.112793 0.133488 -0.162635 -0.012702 0.044716 0.194112 -0.129273 0.005074 0.210309 -0.067220 -0.049369 -0.273678 -0.024239 -0.091281 0.122702 -0.216254 -0.038828 -0.079554 0.335885 0.224766 -0.114921 0.406781 0.029341 -0.090601 -0.200248 -0.036859 -0.132769 -0.260315 0.136903 -0.226205 -0.273827 -0.353587 0.222589 -0.166581 0.198113 0.047277 -0.154989 0.087266 -0.399552 0.201090 0.117640 -0.448309 -0.090956 0.062512 0.142741 -0.294680 0.284459 0.203418 0.446026 -0.019758 -0.086073 0.076951 0.100331 0.037911 0.211637 -0.098911 -0.180751 -0.159189 0.013907 -0.242920 0.195657 -0.058296 -0.282390 -0.122502 0.301111 0.136662 -0.282755 0.146927 0.094526 0.145938 0.399681 0.055172 -0.016213 -0.005279 -0.007420 0.102948 0.095412 -0.175663 0.292469 -0.205806 -0.066013 -0.233093 0.159952 0.130619 -0.097571 -0.134202 -0.004163 0.479097 0.214831 -0.214884 0.206444 4.148462 -0.026748 0.152147 0.250630 0.057992 -0.255443 0.260112 -0.158797 0.142563 -0.333516 0.123860 0.139042 -0.165447 -0.007574 0.035278 0.200491 -0.117550 0.005205 0.215749 -0.071211 -0.040695 -0.271331 -0.023605 -0.093334 0.124446 -0.218897 -0.039351 -0.074997 0.324766 0.215538 -0.115445 0.416160 0.039466 -0.080177 -0.189268 -0.021939 -0.132361 -0.264903 0.130560 -0.226909 -0.271447 -0.357522 0.205027 -0.161317 0.203262 0.046906 -0.145241 0.094507 -0.393529 0.196845 0.107789 -0.431461 -0.082012 0.060807 0.130112 -0.292006 0.292102 0.216588 0.472604 -0.004451 -0.091377 0.059367 0.095271 0.037600 0.228907 -0.106761 -0.197568 -0.164928 0.025801 -0.243623 0.200377 -0.045738 -0.294860 -0.130727 0.325579 0.131822 -0.284062 0.153600 0.088311 0.140910 0.398236 0.072666 -0.003589 -0.005031 0.011728 0.083617 0.094535 -0.177102 0.280185 -0.225272 -0.069882 -0.242197 0.156185 0.137772 -0.095388 -0.129876 0.008885 0.510794 0.236336 -0.222551 0.211270 4.247365
15 -0.052786 0.049673 0.141934 0.000109 -0.032881 0.187864 -0.079407 0.157562 -0.118996 0.056103 0.081017 -0.157049 -0.016975 0.060800 0.320979 0.055287 -0.041211 0.103968 0.021797 -0.126353 -0.439925 -0.047435 -0.050547 0.153437 -0.116658 -0.161492 0.060248 0.138755 0.030391 -0.136125 0.372508 -0.032245 -0.120019 -0.406274 -0.045076 -0.159772 -0.311993 0.302901 -0.260395 -0.116752 -0.264302 0.234438 -0.145036 0.198123 0.010095 -0.024964 0.083376 -0.329505 0.175387 0.020176 -0.210337 -0.000617 0.046611 0.116812 -0.210509 0.195041 0.224938 0.125561 0.009860 0.018213 0.107868 0.159135 0.057543 0.231165 -0.136682 -0.094643 -0.160029 0.058783 -0.399698 0.275495 0.006632 -0.333754 0.053655 0.303885 0.171688 -0.297620 0.178534 -0.089168 0.262320 0.444031 0.124717 0.057849 -0.054633 0.190816 -0.039660 0.051088 0.003635 0.363344 -0.339095 -0.079474 -0.114117 -0.032364 -0.037938 0.143988 0.076464 0.093321 0.591921 0.154309 -0.275629 0.191658 4.414102 -0.048590 0.050541 0.143915 -0.006862 -0.029978 0.183272 -0.077655 0.170123 -0.119210 0.046558 0.079851 -0.166668 -0.013790 0.071060 0.332658 0.063291 -0.044756 0.108852 0.029383 -0.145311 -0.455805 -0.050852 -0.054501 0.148272 -0.113012 -0.164796 0.065313 0.137607 0.040947 -0.150660 0.375443 -0.031531 -0.123192 -0.406140 -0.054053 -0.167647 -0.321355 0.315106 -0.263109 -0.127156 -0.266891 0.245645 -0.148117 0.207579 0.017615 -0.026524 0.085715 -0.328456 0.177943 0.014046 -0.212406 -0.001903 0.055154 0.119234 -0.217054 0.196296 0.224831 0.142022 0.016905 0.005717 0.111583 0.165801 0.049620 0.244806 -0.147809 -0.092254 -0.168144 0.054989 -0.404315 0.277681 0.002377 -0.332486 0.043570 0.303915 0.168037 -0.302025 0.184444 -0.085761 0.265851 0.449605 0.121730 0.052410 -0.052073 0.183221 -0.039547 0.050067 0.003700 0.369886 -0.344777 -0.073180 -0.119242 -0.031981 -0.031759 0.132105 0.065559 0.087706 0.602818 0.158251 -0.282132 0.193072 4.373527
14 0.065749 0.272745 0.432134 -0.116199 0.157841 0.255204 -0.179101 0.141857 -0.020464 -0.076116 0.018179 -0.177962 -0.027749 -0.089837 0.358258 0.119160 -0.004082 0.162441 -0.013646 -0.295222 -0.574213 -0.103129 -0.075111 -0.039139 0.174905 -0.057710 0.085365 -0.004932 -0.004222 -0.005285 0.101170 -0.067395 -0.171904 -0.402925 -0.065967 -0.131978 -0.300430 0.349007 -0.213720 -0.109505 -0.281318 0.398321 -0.144745 0.023023 0.036078 -0.026849 0.116505 -0.238781 -0.000240 0.021215 -0.205521 -0.054248 0.046386 0.216568 -0.280514 0.034199 0.047213 0.072347 0.024393 0.007434 0.173334 0.127252 0.021310 0.160423 -0.036204 0.047921 -0.216618 0.077844 -0.444341 0.164329 0.078760 -0.150999 0.125381 0.167224 0.073431 -0.242992 0.038943 -0.086053 0.218278 0.283738 0.094322 -0.077648 -0.071912 -0.091442 0.057025 0.154823 0.013523 0.312836 -0.288493 0.126162 -0.113676 0.144973 0.066464 -0.121258 -0.100179 0.022819 0.447187 0.067816 -0.162497 0.231276 4.328766 0.070246 0.290576 0.461503 -0.115590 0.165285 0.270376 -0.194000 0.153521 -0.028542 -0.071459 0.023589 -0.181780 -0.027743 -0.098131 0.366558 0.105609 0.005477 0.161030 -0.021137 -0.310804 -0.604770 -0.100687 -0.079467 -0.032765 0.171199 -0.068639 0.079688 0.002921 0.005256 -0.019824 0.111488 -0.064288 -0.176662 -0.416606 -0.067387 -0.133819 -0.316245 0.352582 -0.218605 -0.115073 -0.284711 0.402251 -0.147948 0.039014 0.036561 -0.033700 0.119868 -0.244466 -0.000414 0.024102 -0.209901 -0.052167 0.041874 0.223824 -0.285758 0.038747 0.045669 0.093500 0.011429 0.002454 0.175725 0.137311 0.022303 0.167743 -0.032896 0.046549 -0.213451 0.074680 -0.451115 0.166431 0.063329 -0.158183 0.130797 0.161282 0.084568 -0.239536 0.037233 -0.080486 0.212396 0.276670 0.087930 -0.086140 -0.082146 -0.102533 0.078849 0.165389 0.006044 0.331506 -0.291887 0.122786 -0.117131 0.151331 0.061352 -0.127650 -0.112893 0.024286 0.481769 0.074644 -0.174165 0.251407 4.303796
0 0.015016 0.295832 0.340917 -0.020259 0.249592 0.122542 -0.056933 0.291707 -0.159412 0.033559 -0.068372 -0.135221 0.131777 0.305806 0.390217 -0.159896 -0.146808 -0.092829 -0.017093 -0.047383 -0.313193 -0.151663 -0.028862 0.204816 -0.055137 -0.232892 0.092729 -0.074095 0.098320 -0.337962 -0.062640 0.086244 0.131353 0.188650 0.052510 0.135595 0.121814 -0.216472 0.033113 -0.103364 0.165921 -0.000524 -0.052111 0.112498 0.045136 -0.038765 -0.060777 0.113234 0.202309 0.133189 0.032413 0.049764 0.033552 0.027956 0.070024 -0.080429 -0.104074 -0.135953 -0.336152 0.033722 0.170507 0.461213 -0.160586 -0.285095 0.083242 0.240042 0.139804 -0.317855 -0.101999 0.041838 -0.421386 -0.046649 -0.094665 -0.333061 0.066045 0.503971 -0.218018 0.279048 -0.317456 -0.126053 -0.209239 -0.138570 -0.039232 -0.122458 0.149099 -0.220902 -0.019416 -0.208569 0.407567 -0.110787 0.184129 -0.222585 -0.244654 0.024102 -0.069513 -0.018594 -0.177167 -0.094693 -0.058649 -0.087664 4.724551 0.007116 0.284215 0.328111 -0.017017 0.241409 0.119566 -0.053305 0.286836 -0.162989 0.035962 -0.067364 -0.132360 0.131640 0.310150 0.384275 -0.158527 -0.146244 -0.095026 -0.020334 -0.038388 -0.300857 -0.150017 -0.033887 0.202995 -0.053540 -0.228117 0.095757 -0.081332 0.096631 -0.340689 -0.069813 0.090501 0.140439 0.209874 0.059322 0.135523 0.126439 -0.230737 0.038200 -0.096933 0.160646 -0.014291 -0.043587 0.098765 0.043864 -0.030800 -0.059316 0.120874 0.199985 0.127518 0.042161 0.055487 0.035563 0.016040 0.076273 -0.078976 -0.096642 -0.140362 -0.325776 0.041814 0.164670 0.456578 -0.159380 -0.295430 0.091466 0.242998 0.144988 -0.320506 -0.090299 0.031743 -0.426508 -0.047969 -0.106343 -0.334357 0.060285 0.512057 -0.217012 0.284198 -0.325254 -0.130870 -0.209560 -0.139509 -0.036255 -0.117004 0.151762 -0.221570 -0.020791 -0.220369 0.420470 -0.115098 0.184923 -0.223064 -0.248631 0.027883 -0.068756 -0.017005 -0.178689 -0.087477 -0.063196 -0.087812 4.812042
13 -0.008409 0.281087 0.402422 -0.054678 0.273404 0.140159 -0.109702 0.124206 -0.001356 -0.003393 0.117063 0.003568 -0.091320 -0.230639 0.280485 -0.054845 0.128571 -0.086247 0.010362 -0.251526 -0.521931 0.053838 -0.029545 0.058203 -0.046292 -0.191628 -0.097390 0.137698 -0.009477 -0.173143 0.147748 0.028772 -0.001226 -0.497079 0.002887 -0.025118 -0.211837 0.226194 -0.046653 0.045751 -0.178344 0.094423 -0.131260 0.158495 0.024626 -0.062089 -0.017384 -0.116350 -0.078192 0.078283 -0.353818 -0.071004 -0.116927 0.167618 -0.236830 0.129282 0.133179 0.325504 -0.070959 -0.038400 0.170048 0.155686 -0.119395 0.148008 -0.123889 -0.095200 -0.108902 -0.040790 -0.439573 0.278269 -0.008690 -0.256745 0.118207 -0.066867 0.227491 -0.392308 0.081124 -0.076864 0.249654 0.338926 0.007408 -0.031755 -0.150671 -0.220324 0.305321 0.136356 -0.062117 0.431343 -0.185778 0.055850 -0.034880 0.226739 0.020594 -0.236662 -0.258010 0.118496 0.431047 0.092262 0.121335 0.120995 4.266770 -0.017290 0.289304 0.412268 -0.052161 0.277556 0.132322 -0.103679 0.115027 -0.002563 0.002663 0.127543 0.012582 -0.102322 -0.222609 0.268583 -0.060606 0.132790 -0.086598 0.013498 -0.240278 -0.509914 0.058031 -0.027574 0.057582 -0.046781 -0.183276 -0.097123 0.133370 -0.011869 -0.164359 0.139271 0.034329 0.004386 -0.480591 0.007279 -0.024329 -0.209763 0.215076 -0.046195 0.041663 -0.178799 0.076018 -0.135559 0.144257 0.020623 -0.055242 -0.018709 -0.119191 -0.068436 0.077872 -0.362564 -0.071377 -0.116573 0.157790 -0.237597 0.146824 0.153115 0.339465 -0.072925 -0.034948 0.159146 0.161986 -0.128157 0.144540 -0.130000 -0.091906 -0.106990 -0.049214 -0.437812 0.266557 -0.008814 -0.255513 0.112789 -0.073118 0.221919 -0.387875 0.080664 -0.082778 0.246121 0.350889 0.009869 -0.033386 -0.160226 -0.230942 0.309398 0.131093 -0.058382 0.447291 -0.192484 0.054371 -0.034255 0.241472 0.028039 -0.257557 -0.276859 0.124312 0.448014 0.103199 0.116451 0.121051 4.303236
1 0.261878 0.005605 0.125330 0.032152 0.044361 0.018351 -0.121307 0.350741 0.069424 -0.221384 -0.180729 0.025147 0.245380 0.364915 0.006854 -0.257090 -0.025214 -0.033929 0.113565 -0.324296 -0.031223 -0.103962 0.143104 0.108537 -0.117036 0.039049 -0.354685 0.163508 0.292336 -0.501460 -0.040356 0.211055 0.051026 -0.460925 -0.219489 0.208655 -0.027325 0.062747 0.137710 -0.038278 0.270838 0.373814 -0.166825 0.453580 0.260169 -0.189857 -0.012270 0.238678 -0.102678 -0.177051 -0.109003 -0.080929 -0.074448 0.101800 0.149363 -0.216931 -0.314036 -0.128169 -0.242111 -0.189047 0.057148 0.012828 -0.155787 0.134937 0.006202 0.059191 -0.114866 0.015966 -0.182573 0.169058 -0.282659 -0.138449 -0.069517 -0.136968 0.154429 -0.028927 -0.008523 0.030199 -0.121823 -0.343858 -0.029473 -0.106983 0.069565 -0.156875 -0.036405 -0.156348 -0.023359 -0.406862 0.454984 0.159369 -0.033257 -0.224460 -0.159323 0.086439 0.060726 0.015706 -0.195291 -0.082770 0.225982 0.112142 4.649277 0.260429 -0.004241 0.112501 0.038183 0.044698 0.012429 -0.117348 0.354560 0.073758 -0.225593 -0.187792 0.026243 0.247292 0.374402 0.009462 -0.259381 -0.026700 -0.042573 0.118107 -0.325543 -0.023222 -0.103761 0.145836 0.108815 -0.119788 0.037260 -0.354855 0.162650 0.287952 -0.492478 -0.045340 0.213446 0.057341 -0.443111 -0.213195 0.205331 -0.018453 0.054330 0.140525 -0.030388 0.269307 0.359768 -0.165981 0.446078 0.257351 -0.184438 -0.015522 0.241517 -0.100939 -0.178205 -0.103972 -0.081238 -0.077292 0.098016 0.146509 -0.214556 -0.314230 -0.127818 -0.247489 -0.184372 0.052550 0.011488 -0.160425 0.129521 0.006079 0.064458 -0.109435 0.011566 -0.173241 0.163832 -0.283834 -0.138405 -0.070000 -0.147571 0.149580 -0.021913 -0.009695 0.031008 -0.126889 -0.344711 -0.030439 -0.108252 0.067096 -0.163546 -0.026039 -0.158727 -0.018983 -0.412538 0.472986 0.155699 -0.024627 -0.219895 -0.153374 0.078357 0.051394 0.015201 -0.189895 -0.077284 0.221103 0.109279 4.657925
2 0.211061 0.093397 0.042545 0.024986 0.040401 -0.116505 0.035220 0.132174 0.228057 -0.064141 -0.091381 0.048272 0.219270 0.184799 0.062310 0.024388 -0.209833 -0.285465 -0.021782 0.081190 -0.016089 0.033339 0.111970 -0.081569 0.033015 -0.114813 0.126583 -0.202768 0.029312 -0.142163 -0.116472 0.018938 -0.008580 -0.329425 -0.178205 0.146763 -0.047440 0.159096 0.043344 -0.065391 0.286491 0.107486 0.014636 0.431336 0.127068 -0.247642 0.213235 -0.234573 -0.086484 -0.047687 -0.359046 -0.269079 -0.060690 0.201849 -0.084271 0.084232 0.170067 0.253215 0.096507 -0.091724 0.072324 0.060022 0.005205 -0.302671 0.181716 0.117715 0.024823 -0.221436 0.149711 -0.193320 -0.451109 -0.109398 -0.026681 -0.291367 0.209704 0.178318 0.091309 -0.030511 -0.165103 -0.200203 0.010556 -0.186042 -0.366968 -0.162750 0.054836 -0.051022 0.212799 -0.079668 0.018260 -0.009050 0.038603 -0.044425 -0.021337 0.371034 0.025350 -0.049065 -0.456693 -0.098544 0.293341 -0.135054 4.942394 0.214077 0.100005 0.045088 0.016775 0.046131 -0.110834 0.035940 0.150463 0.222300 -0.061997 -0.090798 0.040449 0.231432 0.195934 0.075044 0.027903 -0.216621 -0.286153 -0.019056 0.075705 -0.022832 0.030489 0.108900 -0.078915 0.028645 -0.120085 0.125302 -0.209861 0.034297 -0.155957 -0.119513 0.025022 -0.000920 -0.322271 -0.173338 0.152065 -0.046809 0.156210 0.045011 -0.071004 0.288069 0.103939 0.013283 0.438783 0.129488 -0.249571 0.218100 -0.227453 -0.082627 -0.049820 -0.361421 -0.271688 -0.057106 0.206094 -0.084435 0.082531 0.165647 0.258667 0.096070 -0.100469 0.077657 0.068594 -0.002440 -0.300916 0.180895 0.123219 0.021163 -0.226972 0.149906 -0.187549 -0.470957 -0.121581 -0.037901 -0.289988 0.216233 0.182393 0.095721 -0.025072 -0.168819 -0.206236 0.010494 -0.190105 -0.366896 -0.164639 0.052064 -0.056961 0.210914 -0.093842 0.031494 -0.012830 0.042879 -0.053465 -0.024188 0.373207 0.027887 -0.052052 -0.447952 -0.096947 0.283091 -0.127246 4.926826
12 0.125487 0.240596 0.385733 -0.133122 0.356564 0.250581 -0.103647 0.119467 0.072499 0.031559 -0.017556 -0.022689 0.020008 -0.310845 0.155400 0.002691 0.062850 -0.104256 -0.145762 -0.050855 -0.208006 0.002232 -0.011261 0.185163 -0.132776 -0.188538 -0.093881 0.227033 -0.117960 -0.109514 0.365992 -0.168668 -0.169434 -0.609371 0.138129 -0.055706 -0.183483 0.213405 -0.140988 0.090162 -0.215716 0.178277 -0.074438 0.243850 -0.065510 -0.118111 -0.106889 -0.179739 -0.077388 0.198448 -0.195412 -0.092731 -0.128357 0.237252 -0.165169 0.054197 -0.015744 0.240486 -0.059852 -0.118643 0.165255 0.198599 0.039965 -0.034481 0.054161 -0.049845 -0.007164 0.060110 -0.314465 0.255669 -0.033835 -0.089151 0.244231 -0.077832 0.231873 -0.220452 -0.017557 -0.053820 0.180656 0.106007 -0.092311 -0.045866 -0.173589 -0.221153 0.307879 0.201513 0.016148 0.415076 -0.227316 -0.016500 0.070746 0.163748 0.041675 -0.276810 -0.220645 0.100262 0.405935 -0.051492 -0.165643 0.158617 4.399073 0.139530 0.262799 0.411876 -0.140527 0.380317 0.264798 -0.108542 0.150462 0.066487 0.028093 -0.022748 -0.026080 0.031288 -0.283237 0.189157 0.007275 0.046816 -0.104550 -0.143294 -0.069489 -0.237184 -0.007301 -0.013469 0.198426 -0.146371 -0.198552 -0.097885 0.235530 -0.106466 -0.147804 0.370453 -0.176849 -0.166913 -0.633243 0.120487 -0.044462 -0.186958 0.218050 -0.135631 0.084057 -0.197417 0.191645 -0.077019 0.259336 -0.052826 -0.129506 -0.106766 -0.182494 -0.065876 0.198588 -0.218864 -0.101613 -0.126620 0.244160 -0.168021 0.058466 -0.015076 0.265893 -0.056492 -0.131259 0.176674 0.224509 0.036871 -0.041388 0.057221 -0.042607 -0.014564 0.044357 -0.334158 0.273113 -0.072360 -0.114886 0.229614 -0.080537 0.253166 -0.237135 -0.005351 -0.048466 0.192120 0.130132 -0.101592 -0.057894 -0.182392 -0.237001 0.317982 0.195909 0.016978 0.450728 -0.228965 -0.019854 0.069164 0.162204 0.031738 -0.288333 -0.229865 0.099681 0.427206 -0.048650 -0.193198 0.178721 4.286850
3 0.392130 0.060373 0.142147 -0.143224 -0.040605 -0.092989 0.103673 0.323950 0.161349 -0.019734 0.133653 -0.173943 0.055767 0.108644 -0.171525 0.000766 0.027162 -0.261828 0.125871 -0.038103 0.013928 0.146427 0.093039 -0.254051 -0.116551 -0.137586 0.105158 -0.229424 0.215946 -0.037366 -0.075856 0.180792 -0.013488 -0.078992 -0.196914 0.088705 0.089180 0.158531 0.025971 -0.268364 0.211700 -0.181106 0.038737 0.474482 0.036179 -0.103881 0.244983 0.070550 -0.086718 -0.048407 0.047040 -0.154289 -0.006960 0.098296 0.101108 0.009459 -0.275307 -0.247072 -0.259141 -0.335297 0.345842 0.225327 -0.266430 0.015382 -0.153892 0.226597 -0.270687 -0.156225 -0.124461 0.115417 -0.466055 -0.298356 -0.193960 -0.247721 0.249671 -0.051696 0.180022 0.029310 -0.132071 -0.002072 -0.107949 -0.409741 -0.359761 -0.424692 0.257359 0.024437 0.113714 -0.044950 0.148657 -0.034696 0.127188 -0.025959 0.229853 0.058595 -0.295821 -0.268302 0.228393 -0.087640 -0.258284 0.096522 4.588379 0.394801 0.064876 0.149923 -0.143210 -0.035504 -0.090004 0.099919 0.321320 0.161238 -0.023775 0.134628 -0.172523 0.051386 0.111231 -0.173490 -0.001011 0.035192 -0.256905 0.122231 -0.035265 0.011746 0.140716 0.092802 -0.253448 -0.111396 -0.132937 0.106574 -0.232004 0.217188 -0.041702 -0.072660 0.179208 -0.016426 -0.073609 -0.194083 0.087484 0.089707 0.151053 0.025051 -0.266120 0.202802 -0.173223 0.038217 0.462328 0.039089 -0.104875 0.234857 0.075415 -0.083449 -0.042689 0.034940 -0.146370 0.001705 0.096003 0.093070 0.016736 -0.270895 -0.235162 -0.252559 -0.345576 0.354170 0.232292 -0.271800 0.011903 -0.152194 0.229491 -0.277513 -0.155731 -0.130459 0.114172 -0.470307 -0.301212 -0.200548 -0.254349 0.248210 -0.055107 0.175513 0.034338 -0.133146 0.005157 -0.115413 -0.414613 -0.358602 -0.433402 0.269953 0.021237 0.111470 -0.044485 0.157119 -0.031039 0.127551 -0.019598 0.225276 0.055165 -0.302115 -0.264037 0.235131 -0.085962 -0.257325 0.106922 4.621734
4 0.128157 -0.229543 -0.125920 0.179114 0.034850 -0.065967 0.003559 0.136809 0.218656 -0.063920 -0.132266 -0.086116 -0.021311 0.226050 0.211881 0.058169 -0.064932 -0.209088 0.100987 -0.255608 -0.003573 0.092979 0.069873 -0.042124 -0.297865 -0.169298 -0.033802 0.140267 0.013731 0.127738 -0.097304 0.044953 0.144889 -0.221959 -0.376597 0.028137 0.128686 0.061485 0.159535 0.099796 0.172029 0.025559 -0.032321 0.299823 -0.010844 0.055386 -0.043804 -0.064466 -0.102516 -0.034230 0.114769 -0.176782 -0.238268 -0.014878 -0.102785 -0.009244 -0.426850 0.183201 -0.266826 -0.061444 -0.052311 -0.038043 0.053091 -0.021942 0.064886 0.147082 0.160877 -0.041002 0.165040 -0.156122 -0.197495 -0.186281 -0.052481 -0.251867 -0.003063 -0.038451 0.119134 -0.053517 0.019830 0.053298 -0.013840 -0.156561 -0.152882 -0.139991 0.192873 -0.028962 0.092834 0.184947 0.333546 -0.168547 0.272024 0.206632 -0.007508 -0.061908 -0.278358 -0.119379 0.094464 0.156808 -0.180536 0.124072 5.025861 0.126892 -0.215362 -0.127934 0.166094 0.034694 -0.057968 0.008614 0.150833 0.217694 -0.062149 -0.134662 -0.099394 -0.009594 0.222483 0.228518 0.061795 -0.072503 -0.208408 0.101499 -0.249212 -0.002252 0.093753 0.062429 -0.039469 -0.293082 -0.180572 -0.034073 0.130746 0.013584 0.123314 -0.091969 0.046800 0.149923 -0.203018 -0.359334 0.029830 0.125243 0.067543 0.157030 0.090448 0.168470 0.014751 -0.031160 0.297876 -0.013388 0.056754 -0.034438 -0.058721 -0.096160 -0.032271 0.119644 -0.170719 -0.238548 -0.012084 -0.103530 -0.011764 -0.427611 0.192395 -0.264503 -0.051009 -0.055727 -0.052950 0.055453 -0.020728 0.064015 0.146487 0.170684 -0.036403 0.177514 -0.157370 -0.187238 -0.188836 -0.047669 -0.248188 -0.005102 -0.043809 0.127421 -0.056340 0.020992 0.050818 0.004644 -0.143158 -0.143719 -0.136266 0.196793 -0.015989 0.086608 0.179757 0.353256 -0.166967 0.276182 0.216165 0.000302 -0.066978 -0.278201 -0.131145 0.098144 0.159079 -0.193657 0.133688 5.041220
11 0.158226 0.237438 0.154120 -0.278805 0.309121 0.139034 0.035235 0.085348 0.120340 -0.067429 0.020879 -0.144133 0.037030 -0.302789 0.389275 0.327964 -0.006220 0.067838 -0.050332 -0.235217 -0.286313 -0.067205 -0.184364 0.174972 -0.215800 -0.128778 -0.048224 0.247852 -0.058200 -0.165788 0.394913 -0.182662 -0.079952 -0.336991 0.120607 -0.208669 -0.254115 0.166822 0.080432 0.036400 -0.161170 0.122023 0.037940 0.348919 0.110462 -0.107840 -0.108794 0.008023 -0.162105 0.087859 -0.029663 -0.078602 0.005460 0.047289 -0.120840 -0.058373 -0.089134 0.542372 0.260395 -0.168105 0.218788 0.183530 0.066616 -0.040564 -0.017631 -0.079063 -0.090659 0.017375 -0.251982 0.297962 -0.154718 -0.208982 -0.216626 -0.000265 0.138021 -0.378061 0.235212 0.169591 0.179122 0.195727 -0.121182 -0.053217 0.035455 -0.097186 0.248826 0.266126 -0.122102 0.091959 0.096023 -0.073316 -0.005597 0.117433 0.101899 -0.215907 -0.194544 -0.033878 0.119844 0.097422 -0.142045 0.085854 4.436741 0.149867 0.226621 0.148235 -0.281197 0.316596 0.136190 0.039160 0.078965 0.127433 -0.069104 0.023901 -0.136767 0.033331 -0.323165 0.375383 0.332236 0.001413 0.062447 -0.051190 -0.232497 -0.282966 -0.068714 -0.176331 0.170285 -0.205787 -0.120208 -0.045967 0.240889 -0.075959 -0.151922 0.394317 -0.183661 -0.085423 -0.338147 0.142348 -0.215529 -0.253514 0.161479 0.079986 0.048952 -0.163052 0.101820 0.044154 0.338602 0.105957 -0.096742 -0.116462 0.022626 -0.171983 0.087346 -0.007898 -0.073674 -0.000007 0.049871 -0.121551 -0.065073 -0.097120 0.553990 0.259024 -0.185900 0.227271 0.195376 0.057176 -0.034345 -0.028629 -0.086647 -0.099242 0.027553 -0.275725 0.318306 -0.137981 -0.198730 -0.199916 -0.001239 0.129828 -0.386278 0.230547 0.163411 0.180634 0.198541 -0.123911 -0.048613 0.032095 -0.113282 0.274376 0.287831 -0.125754 0.123384 0.082815 -0.074356 0.001898 0.135252 0.119131 -0.266520 -0.229978 -0.024871 0.138341 0.098083 -0.127539 0.067142 4.532391
5 0.313776 0.274615 0.085310 -0.040107 -0.046287 0.007220 0.069527 0.305246 0.151879 -0.104003 -0.234560 -0.080291 0.182592 0.314080 0.384486 -0.103679 -0.257445 -0.136208 0.121180 -0.143729 -0.105984 0.001302 -0.008741 0.104685 -0.115286 -0.210653 -0.116061 0.078082 0.193484 -0.348132 -0.012793 -0.023644 0.126708 -0.246288 -0.197896 0.118411 -0.076008 0.253622 0.180450 -0.062266 0.201559 0.109253 -0.036815 0.257181 0.047921 -0.113141 0.179185 -0.012543 -0.062598 -0.107756 -0.057753 -0.076597 -0.125765 -0.151982 0.166451 -0.038437 0.128644 -0.174364 0.092978 0.342671 -0.166298 -0.127813 0.061061 -0.184121 0.121930 0.138406 0.171158 -0.232873 0.060704 -0.137609 -0.250985 -0.164949 -0.072901 -0.266120 0.236362 -0.128317 0.177203 -0.067977 0.060111 0.058503 0.061269 -0.228544 -0.250908 -0.423415 0.239770 0.189785 0.054845 0.213685 0.319924 0.094395 -0.066154 0.225665 -0.007584 -0.261277 -0.377169 -0.114390 0.194293 0.119764 -0.560994 0.334002 4.491394 0.316856 0.274943 0.079201 -0.046407 -0.045956 0.002540 0.073601 0.311003 0.159915 -0.110216 -0.237976 -0.089194 0.190259 0.304521 0.387609 -0.096734 -0.264169 -0.145351 0.118052 -0.150916 -0.108176 0.002013 -0.019553 0.103921 -0.113112 -0.223505 -0.113437 0.079596 0.190216 -0.354844 -0.003586 -0.031150 0.121068 -0.244512 -0.189083 0.111455 -0.079916 0.251162 0.173882 -0.064156 0.194844 0.103255 -0.027804 0.259619 0.048392 -0.110160 0.176158 -0.007800 -0.063690 -0.099213 -0.045685 -0.069918 -0.111303 -0.134128 0.159752 -0.044773 0.125097 -0.162385 0.095120 0.328987 -0.150974 -0.128508 0.060528 -0.178876 0.116437 0.131645 0.166261 -0.226530 0.056257 -0.122397 -0.242936 -0.155273 -0.066776 -0.250772 0.231798 -0.123822 0.175087 -0.060873 0.054254 0.044593 0.063664 -0.208286 -0.240027 -0.407121 0.233223 0.194834 0.049065 0.202758 0.312585 0.095789 -0.069497 0.211004 -0.005371 -0.252112 -0.367485 -0.117789 0.186562 0.111348 -0.548883 0.343807 4.564450
10 0.223228 0.055552 0.103084 -0.124858 0.240597 -0.077398 -0.003982 0.118795 0.047434 -0.122467 -0.063767 -0.058553 0.060234 -0.004483 0.115323 0.028067 -0.072552 0.065031 -0.001314 -0.194813 -0.029109 0.027517 -0.192367 0.098326 -0.048624 -0.127687 -0.155690 0.298696 0.131512 -0.235947 0.042492 -0.336870 -0.170791 -0.368560 -0.122353 -0.050695 -0.110205 0.266432 -0.030780 -0.118730 -0.046463 0.353558 -0.079820 0.074521 0.027879 -0.237579 -0.130725 -0.078337 0.092790 0.231413 -0.313981 -0.205723 0.150129 0.294804 -0.031001 -0.129569 -0.080474 0.150195 0.121223 -0.097494 0.381095 0.206895 0.092753 -0.062267 0.026305 0.101507 0.003095 -0.177499 -0.126288 0.249308 -0.322178 0.037289 0.008053 -0.026634 0.272464 -0.355333 0.138148 0.180352 0.447617 0.355146 -0.280483 -0.125862 0.096557 -0.271248 0.252149 0.144441 -0.130762 0.599074 -0.102031 0.015368 -0.002382 0.033899 -0.046938 -0.306868 -0.047632 -0.227757 0.053059 -0.250999 -0.317788 0.176559 4.424998 0.233634 0.055121 0.121468 -0.114940 0.229210 -0.063087 -0.019091 0.123742 0.034565 -0.125003 -0.060769 -0.060936 0.051700 0.004329 0.134007 0.027522 -0.077732 0.075118 0.001486 -0.214556 -0.053115 0.013035 -0.190945 0.105107 -0.057530 -0.125279 -0.155349 0.318758 0.143279 -0.232709 0.047542 -0.338467 -0.174871 -0.349323 -0.133002 -0.061853 -0.101876 0.255896 -0.030183 -0.121248 -0.043535 0.363751 -0.082158 0.076987 0.043966 -0.247263 -0.131727 -0.089813 0.100644 0.226393 -0.318514 -0.208363 0.154915 0.296318 -0.046964 -0.127259 -0.083087 0.170356 0.109658 -0.098739 0.395018 0.221432 0.089029 -0.058390 0.019957 0.097321 -0.013220 -0.177613 -0.149752 0.266323 -0.333800 0.021459 0.005119 -0.036254 0.272420 -0.358480 0.138936 0.190496 0.432940 0.358603 -0.283987 -0.133607 0.093013 -0.286661 0.268841 0.143665 -0.133325 0.600025 -0.086357 0.017709 -0.011147 0.038423 -0.037800 -0.298766 -0.071219 -0.235756 0.053594 -0.237091 -0.311077 0.182836 4.383966
6 0.152848 -0.007690 -0.082340 -0.000710 0.206805 0.083570 0.001320 0.494615 0.162742 -0.172780 -0.319664 -0.317728 0.387943 0.399323 0.497288 0.055262 -0.356642 -0.213276 -0.049236 -0.165885 -0.259033 -0.121785 -0.016458 -0.045776 -0.035483 -0.393109 0.168863 -0.015210 0.165947 -0.490300 0.201459 -0.029914 0.012981 -0.174145 -0.279174 0.126956 -0.003385 0.227838 0.040442 -0.147991 0.277430 0.342091 0.092115 0.563523 0.155825 -0.146189 0.060372 -0.008907 -0.106743 0.115407 0.008980 -0.155588 -0.046203 0.237535 -0.184821 -0.083048 -0.400703 0.313144 -0.020940 -0.428304 0.113919 0.131682 -0.008048 -0.048619 0.149007 -0.020835 0.090950 0.002912 0.001952 0.021580 -0.178160 -0.212286 -0.075528 -0.022007 0.024573 0.050374 0.075037 0.084433 0.031851 0.086830 0.081689 -0.216106 -0.133159 -0.282702 0.199814 0.132622 0.058004 0.277144 -0.098771 0.036294 0.007320 0.074970 0.051540 -0.196666 -0.379099 -0.074468 0.286885 0.144423 -0.303893 0.058557 4.113783 0.175549 0.003810 -0.071137 -0.011278 0.230342 0.090564 0.001057 0.525473 0.177611 -0.191392 -0.345797 -0.338875 0.406142 0.418216 0.519074 0.063761 -0.369202 -0.220703 -0.049256 -0.183909 -0.267172 -0.128523 -0.015786 -0.048997 -0.034274 -0.410513 0.174936 -0.018297 0.173286 -0.523077 0.212476 -0.037390 0.008467 -0.188118 -0.293195 0.133385 -0.004829 0.240033 0.040988 -0.154979 0.283195 0.365784 0.091848 0.593242 0.158549 -0.152857 0.058446 -0.009089 -0.106427 0.124093 -0.002461 -0.161647 -0.045191 0.258763 -0.205097 -0.082211 -0.415067 0.345365 -0.020323 -0.459805 0.117956 0.135122 -0.014307 -0.039693 0.141543 -0.022134 0.086119 0.005537 -0.000530 0.030267 -0.174420 -0.204840 -0.069271 -0.016488 0.024712 0.051622 0.069338 0.084110 0.033864 0.083075 0.079092 -0.211502 -0.130616 -0.286674 0.204342 0.134406 0.057783 0.296806 -0.110658 0.039977 0.010390 0.080230 0.057329 -0.219060 -0.398922 -0.078299 0.302613 0.137316 -0.307426 0.063901 4.075856
7 0.346348 0.129150 0.160142 -0.004219 0.254867 0.016940 -0.024242 0.091270 0.229522 -0.253601 -0.241425 -0.006042 0.004708 0.471209 0.243322 0.120046 -0.115682 -0.032966 -0.012612 -0.107691 -0.141417 -0.259569 0.107223 -0.029541 0.013196 0.000386 0.202820 -0.051046 0.129176 -0.287144 0.096750 -0.121262 -0.099170 -0.148142 -0.384816 0.015862 0.088616 -0.002381 0.120229 0.090281 0.201859 0.490313 0.022521 0.139021 0.244295 -0.153218 -0.167683 -0.033731 -0.053693 -0.045225 -0.181784 0.022844 0.039247 -0.096151 -0.212538 0.079999 -0.183280 0.252397 0.082173 -0.274014 0.138489 0.268682 -0.036042 -0.208046 0.105807 0.090675 -0.231318 -0.039703 -0.226558 -0.013614 -0.293811 -0.233716 -0.329484 -0.256976 0.043905 -0.292301 0.058619 0.093561 0.113423 0.399367 -0.253290 -0.301218 -0.113276 -0.360247 0.286328 -0.023940 0.105358 0.337527 -0.016421 0.096526 -0.047888 0.274345 0.000130 -0.154917 -0.382656 0.071351 0.182002 0.113956 -0.225250 0.293157 4.295121 0.351262 0.129604 0.157336 0.007202 0.242110 0.021078 -0.026504 0.101414 0.230444 -0.260153 -0.256408 -0.010745 0.015618 0.493532 0.264266 0.122949 -0.132144 -0.035080 -0.013691 -0.118151 -0.157641 -0.268131 0.108179 -0.025500 0.008809 -0.002591 0.208716 -0.046808 0.132412 -0.299131 0.103647 -0.117972 -0.093912 -0.149804 -0.395780 0.015271 0.081138 -0.004293 0.123505 0.092652 0.203108 0.498207 0.026633 0.147685 0.247574 -0.149374 -0.163555 -0.040886 -0.056348 -0.051250 -0.176760 0.030037 0.035200 -0.107447 -0.220662 0.086876 -0.170205 0.271721 0.094086 -0.268116 0.118447 0.265985 -0.027546 -0.212642 0.113217 0.087636 -0.227889 -0.043923 -0.226428 -0.023328 -0.300457 -0.246159 -0.340670 -0.252119 0.040146 -0.285030 0.062947 0.089799 0.104167 0.397324 -0.243785 -0.305195 -0.128557 -0.357827 0.282227 -0.026850 0.113412 0.343508 -0.012001 0.091286 -0.051615 0.285961 -0.003071 -0.156599 -0.409208 0.079533 0.192831 0.137788 -0.232755 0.290771 4.331426
9 0.007565 0.250459 0.014295 -0.229871 0.405412 -0.141271 0.220179 0.086254 0.173977 -0.084034 -0.053281 -0.009553 0.150577 0.091580 0.083887 0.200260 -0.009614 -0.087967 -0.052510 -0.093037 0.023269 0.076171 -0.217492 0.008363 -0.082880 -0.134368 -0.088562 0.012917 0.004492 -0.466962 0.016015 -0.117089 0.073443 -0.360913 -0.116781 0.215313 -0.150933 0.062008 0.139276 -0.129609 0.077055 0.120745 -0.040894 0.151443 -0.003739 -0.025300 -0.089416 0.188991 -0.006975 0.174579 -0.315110 -0.084355 0.072925 0.038770 0.072055 0.037917 -0.022465 0.259115 0.246447 -0.263010 0.099575 0.164370 -0.058116 -0.163280 0.087241 0.085829 0.004985 -0.114809 -0.106387 0.068208 -0.167701 -0.113920 -0.290233 0.114933 0.139084 -0.310319 0.142625 0.017275 0.319005 0.389358 -0.103283 -0.007061 0.016823 -0.016082 -0.004308 0.006801 -0.070909 0.289040 -0.215752 -0.053674 0.051216 0.126459 -0.019621 -0.417669 -0.076909 0.130939 0.338169 0.001289 -0.252090 0.180238 4.695583 0.016545 0.246221 0.001621 -0.238307 0.407588 -0.149826 0.222602 0.076866 0.183034 -0.094029 -0.056701 -0.013521 0.146125 0.083752 0.082243 0.210055 -0.009550 -0.073000 -0.050846 -0.099836 0.039446 0.076629 -0.231061 0.010135 -0.073488 -0.129506 -0.093898 0.016796 0.005445 -0.457113 0.005564 -0.137599 0.066578 -0.342944 -0.117309 0.207900 -0.149046 0.071000 0.142526 -0.130941 0.075555 0.133108 -0.040536 0.131603 -0.001943 -0.030023 -0.097648 0.198748 -0.001348 0.175295 -0.307234 -0.080440 0.089840 0.039942 0.082630 0.026530 -0.023813 0.258969 0.273665 -0.259616 0.111774 0.159354 -0.051849 -0.166585 0.090902 0.089981 0.006554 -0.110165 -0.100593 0.072666 -0.159979 -0.097011 -0.295977 0.127487 0.136097 -0.328403 0.148243 0.028120 0.338201 0.403736 -0.115275 -0.002505 0.040964 -0.014128 -0.003815 0.013550 -0.084070 0.294830 -0.211607 -0.048046 0.046620 0.127316 -0.022201 -0.440540 -0.073274 0.122530 0.336934 -0.008747 -0.274125 0.187481 4.780213
8 0.116290 0.067113 0.164494 0.044839 0.119780 -0.023733 0.050586 0.166613 -0.117089 -0.049157 -0.109722 0.146728 0.173742 0.315689 0.045573 0.158027 -0.258623 -0.081748 -0.057212 -0.204229 -0.292036 -0.179661 -0.023640 0.077612 -0.188332 0.000152 0.051954 0.244627 0.053474 -0.585825 0.159930 -0.164108 -0.073352 -0.610960 -0.248592 0.104179 -0.179968 -0.087590 0.090923 0.023759 0.099282 0.241758 0.142802 0.289540 0.029580 -0.017494 -0.014770 -0.002162 -0.105194 0.059315 -0.038774 -0.030583 -0.051066 -0.025921 0.038092 -0.028336 -0.074374 0.237835 0.174194 -0.309663 0.035934 0.404294 0.058427 -0.216885 0.113443 0.107040 -0.162459 -0.280658 -0.385274 0.230338 -0.562845 -0.318537 -0.335989 0.037748 0.231857 -0.169414 0.158736 -0.001720 0.140629 0.206115 -0.187399 -0.284986 -0.424365 -0.178064 -0.036863 -0.093642 0.211860 0.459289 -0.162958 -0.177251 0.083218 0.068233 -0.050133 -0.173846 -0.403533 0.122916 0.332918 0.163043 -0.260785 0.103767 4.081656 0.120248 0.063003 0.162250 0.046215 0.107925 -0.025351 0.050612 0.179256 -0.116340 -0.047373 -0.105311 0.134707 0.177515 0.314621 0.045564 0.155960 -0.252250 -0.083517 -0.053851 -0.213615 -0.293008 -0.167076 -0.024492 0.076365 -0.200094 -0.001721 0.044238 0.249096 0.060114 -0.569511 0.159085 -0.151123 -0.068372 -0.599941 -0.246955 0.100465 -0.179012 -0.086236 0.087495 0.016484 0.090585 0.226298 0.135874 0.295287 0.023515 -0.015912 -0.015159 -0.003522 -0.101061 0.059417 -0.046236 -0.036903 -0.051870 -0.022935 0.035248 -0.016772 -0.067157 0.261565 0.173365 -0.316047 0.032609 0.404355 0.054316 -0.208192 0.109668 0.110290 -0.157739 -0.283768 -0.374314 0.226485 -0.571238 -0.323248 -0.341456 0.037873 0.233637 -0.166230 0.164858 -0.004050 0.137853 0.203454 -0.186434 -0.291799 -0.434850 -0.186518 -0.031089 -0.098024 0.212025 0.463880 -0.159274 -0.185096 0.091369 0.076059 -0.044764 -0.186002 -0.419976 0.119642 0.347975 0.168473 -0.268451 0.102789 4.144038
<unk> 0.121336 0.127165 0.166577 -0.069698 0.114196 0.097492 -0.024942 0.202510 -0.012905 -0.027370 -0.039169 -0.064369 0.089099 0.118768 0.213848 0.035758 -0.087185 0.002151 0.024692 -0.140377 -0.206873 -0.063546 -0.001888 0.062690 -0.098030 -0.085758 -0.025942 0.101475 0.072783 -0.183100 0.138659 -0.038476 -0.040592 -0.261442 -0.073743 -0.015612 -0.111235 0.140296 -0.024883 -0.062239 -0.018862 0.175835 -0.072119 0.230209 0.059504 -0.110227 0.014971 -0.104033 0.018064 0.028104 -0.202780 -0.117211 -0.019279 0.112635 -0.119082 0.053416 -0.018710 0.221330 0.010934 -0.123456 0.081284 0.148275 -0.027960 0.015264 -0.024923 0.016634 -0.081249 -0.064432 -0.184107 0.137553 -0.178412 -0.177082 -0.066393 -0.016542 0.142524 -0.158751 0.088995 0.012594 0.113561 0.174109 -0.036738 -0.102682 -0.102324 -0.186135 0.106104 0.031723 0.018170 0.235208 -0.065259 0.002232 -0.010115 0.077165 0.048253 -0.140281 -0.173063 -0.014642 0.242503 0.045118 -0.183119 0.149654 4.447103 0.124027 0.131989 0.170935 -0.072416 0.116333 0.100893 -0.026234 0.210518 -0.014706 -0.028431 -0.040373 -0.068459 0.091911 0.122860 0.220210 0.037150 -0.088782 0.002534 0.024739 -0.144770 -0.210738 -0.064626 -0.003800 0.063875 -0.099066 -0.088571 -0.025515 0.100443 0.075424 -0.188205 0.139714 -0.037694 -0.038715 -0.255870 -0.073393 -0.016163 -0.111557 0.138986 -0.025104 -0.064369 -0.019917 0.174152 -0.071773 0.231213 0.060809 -0.110373 0.015195 -0.103129 0.020805 0.027087 -0.203930 -0.115912 -0.016759 0.113674 -0.123231 0.057022 -0.015563 0.236641 0.013982 -0.127988 0.081905 0.151688 -0.030295 0.020315 -0.028047 0.015434 -0.083453 -0.064954 -0.186536 0.140414 -0.181622 -0.180226 -0.069401 -0.014642 0.142802 -0.159997 0.091212 0.014194 0.113009 0.176567 -0.036780 -0.103178 -0.103554 -0.190513 0.110600 0.032781 0.016215 0.242230 -0.066302 0.001683 -0.011357 0.081590 0.051624 -0.149986 -0.183110 -0.015135 0.257318 0.050432 -0.191936 0.157017 4.468669
